Language model created by QuickLM on Tue Oct 18 19:45:19 EDT 2016
Copyright (c) 1996-2010 Carnegie Mellon University and Alexander I. Rudnicky

The model is in standard ARPA format, designed by Doug Paul while he was at MITRE.

The code that was used to produce this language model is available in Open Source.
Please visit http://www.speech.cs.cmu.edu/tools/ for more information

The (fixed) discount mass is 0.5. The backoffs are computed using the ratio method.
This model based on a corpus of 5 sentences and 14 words

\data\
ngram 1=14
ngram 2=18
ngram 3=13

\1-grams:
-0.9638 </s> -0.3010
-0.9638 <s> -0.2511
-1.3617 A -0.2817
-1.6628 DO -0.2817
-1.6628 FLIP -0.2511
-1.6628 FORWARD -0.2511
-1.6628 GO -0.2915
-1.6628 LEFT -0.2511
-1.6628 MOVE -0.2915
-1.6628 RIGHT -0.2511
-1.6628 SHOT! -0.2511
-1.6628 TAKE -0.2817
-1.6628 THE -0.2915
-1.6628 TO -0.2915

\2-grams:
-1.0000 <s> DO 0.0000
-1.0000 <s> GO 0.0000
-1.0000 <s> MOVE 0.0000
-1.0000 <s> TAKE 0.0000
-1.0000 <s> TO 0.0000
-0.6021 A FLIP 0.0000
-0.6021 A SHOT! 0.0000
-0.3010 DO A -0.1761
-0.3010 FLIP </s> -0.3010
-0.3010 FORWARD </s> -0.3010
-0.3010 GO LEFT 0.0000
-0.3010 LEFT </s> -0.3010
-0.3010 MOVE FORWARD 0.0000
-0.3010 RIGHT </s> -0.3010
-0.3010 SHOT! </s> -0.3010
-0.3010 TAKE A -0.1761
-0.3010 THE RIGHT 0.0000
-0.3010 TO THE 0.0000

\3-grams:
-0.3010 <s> DO A
-0.3010 <s> GO LEFT
-0.3010 <s> MOVE FORWARD
-0.3010 <s> TAKE A
-0.3010 <s> TO THE
-0.3010 A FLIP </s>
-0.3010 A SHOT! </s>
-0.3010 DO A FLIP
-0.3010 GO LEFT </s>
-0.3010 MOVE FORWARD </s>
-0.3010 TAKE A SHOT!
-0.3010 THE RIGHT </s>
-0.3010 TO THE RIGHT

\end\
